Language model created by QuickLM on Mon Mar 25 14:07:14 EDT 2019
Copyright (c) 1996-2010 Carnegie Mellon University and Alexander I. Rudnicky

The model is in standard ARPA format, designed by Doug Paul while he was at MITRE.

The code that was used to produce this language model is available in Open Source.
Please visit http://www.speech.cs.cmu.edu/tools/ for more information

The (fixed) discount mass is 0.5. The backoffs are computed using the ratio method.
This model based on a corpus of 9 sentences and 15 words

\data\
ngram 1=15
ngram 2=21
ngram 3=17

\1-grams:
-0.9596 </s> -0.3010
-0.9596 <s> -0.2505
-1.6128 AWAY -0.2793
-1.9138 CLOSE -0.2903
-1.3118 CUP -0.2793
-1.6128 GO -0.2903
-1.6128 HAND -0.2505
-1.9138 HELLO -0.2505
-1.6128 ONE -0.2505
-1.9138 OPEN -0.2903
-1.6128 PUT -0.2903
-1.9138 RESET -0.2505
-1.9138 STOP -0.2505
-1.6128 TO -0.2793
-1.6128 TWO -0.2505

\2-grams:
-1.2553 <s> CLOSE 0.0000
-0.9542 <s> GO 0.0000
-1.2553 <s> HELLO 0.0000
-1.2553 <s> OPEN 0.0000
-0.9542 <s> PUT 0.0000
-1.2553 <s> RESET 0.0000
-1.2553 <s> STOP 0.0000
-0.3010 AWAY CUP 0.0000
-0.3010 CLOSE HAND 0.0000
-0.6021 CUP ONE 0.0000
-0.6021 CUP TWO 0.0000
-0.3010 GO TO 0.0000
-0.3010 HAND </s> -0.3010
-0.3010 HELLO </s> -0.3010
-0.3010 ONE </s> -0.3010
-0.3010 OPEN HAND 0.0000
-0.3010 PUT AWAY 0.0000
-0.3010 RESET </s> -0.3010
-0.3010 STOP </s> -0.3010
-0.3010 TO CUP 0.0000
-0.3010 TWO </s> -0.3010

\3-grams:
-0.3010 <s> CLOSE HAND
-0.3010 <s> GO TO
-0.3010 <s> HELLO </s>
-0.3010 <s> OPEN HAND
-0.3010 <s> PUT AWAY
-0.3010 <s> RESET </s>
-0.3010 <s> STOP </s>
-0.6021 AWAY CUP ONE
-0.6021 AWAY CUP TWO
-0.3010 CLOSE HAND </s>
-0.3010 CUP ONE </s>
-0.3010 CUP TWO </s>
-0.3010 GO TO CUP
-0.3010 OPEN HAND </s>
-0.3010 PUT AWAY CUP
-0.6021 TO CUP ONE
-0.6021 TO CUP TWO

\end\
