Language model created by QuickLM on Thu Mar 14 00:11:45 EDT 2019
Copyright (c) 1996-2010 Carnegie Mellon University and Alexander I. Rudnicky

The model is in standard ARPA format, designed by Doug Paul while he was at MITRE.

The code that was used to produce this language model is available in Open Source.
Please visit http://www.speech.cs.cmu.edu/tools/ for more information

The (fixed) discount mass is 0.5. The backoffs are computed using the ratio method.
This model based on a corpus of 5 sentences and 12 words

\data\
ngram 1=12
ngram 2=15
ngram 3=12

\1-grams:
-0.9445 </s> -0.3010
-0.9445 <s> -0.2486
-1.6435 AWAY -0.2808
-1.6435 CLOSE -0.2808
-1.3424 CUP -0.2486
-1.6435 GO -0.2910
-1.3424 GRIPPER -0.2486
-1.6435 OPEN -0.2808
-1.6435 POSE -0.2486
-1.6435 PUT -0.2910
-1.6435 RESET -0.2910
-1.6435 TO -0.2808

\2-grams:
-1.0000 <s> CLOSE 0.0000
-1.0000 <s> GO 0.0000
-1.0000 <s> OPEN 0.0000
-1.0000 <s> PUT 0.0000
-1.0000 <s> RESET 0.0000
-0.3010 AWAY CUP 0.0000
-0.3010 CLOSE GRIPPER 0.0000
-0.3010 CUP </s> -0.3010
-0.3010 GO TO 0.0000
-0.3010 GRIPPER </s> -0.3010
-0.3010 OPEN GRIPPER 0.0000
-0.3010 POSE </s> -0.3010
-0.3010 PUT AWAY 0.0000
-0.3010 RESET POSE 0.0000
-0.3010 TO CUP 0.0000

\3-grams:
-0.3010 <s> CLOSE GRIPPER
-0.3010 <s> GO TO
-0.3010 <s> OPEN GRIPPER
-0.3010 <s> PUT AWAY
-0.3010 <s> RESET POSE
-0.3010 AWAY CUP </s>
-0.3010 CLOSE GRIPPER </s>
-0.3010 GO TO CUP
-0.3010 OPEN GRIPPER </s>
-0.3010 PUT AWAY CUP
-0.3010 RESET POSE </s>
-0.3010 TO CUP </s>

\end\
