Language model created by QuickLM on Sat Jul  6 00:58:45 EDT 2019
Copyright (c) 1996-2010 Carnegie Mellon University and Alexander I. Rudnicky

The model is in standard ARPA format, designed by Doug Paul while he was at MITRE.

The code that was used to produce this language model is available in Open Source.
Please visit http://www.speech.cs.cmu.edu/tools/ for more information

The (fixed) discount mass is 0.5. The backoffs are computed using the ratio method.
This model based on a corpus of 7 sentences and 9 words

\data\
ngram 1=9
ngram 2=14
ngram 3=7

\1-grams:
-0.7782 </s> -0.3010
-0.7782 <s> -0.2218
-1.6232 CLOSE -0.2218
-1.6232 GO -0.2218
-1.6232 HELLO -0.2218
-1.6232 OPEN -0.2218
-1.6232 PUT -0.2218
-1.6232 RESET -0.2218
-1.6232 STOP -0.2218

\2-grams:
-1.1461 <s> CLOSE 0.0000
-1.1461 <s> GO 0.0000
-1.1461 <s> HELLO 0.0000
-1.1461 <s> OPEN 0.0000
-1.1461 <s> PUT 0.0000
-1.1461 <s> RESET 0.0000
-1.1461 <s> STOP 0.0000
-0.3010 CLOSE </s> -0.3010
-0.3010 GO </s> -0.3010
-0.3010 HELLO </s> -0.3010
-0.3010 OPEN </s> -0.3010
-0.3010 PUT </s> -0.3010
-0.3010 RESET </s> -0.3010
-0.3010 STOP </s> -0.3010

\3-grams:
-0.3010 <s> CLOSE </s>
-0.3010 <s> GO </s>
-0.3010 <s> HELLO </s>
-0.3010 <s> OPEN </s>
-0.3010 <s> PUT </s>
-0.3010 <s> RESET </s>
-0.3010 <s> STOP </s>

\end\
